A,0.659039,0.0963124,-0.603387,-1.40774,0.366541,0.0544022,-0.711774,-1.1751,0.477831,-0.470903,0.425334,-0.302791,0.0354442,0.0240462,1.42012,-0.643112,-0.386452,-1.22487,0.513555,1.15424
R,-0.262066,-0.0142823,0.149301,-0.709872,1.11772,-0.865625,-0.768189,-0.572656,0.393587,-0.240059,0.899066,-0.937994,0.808671,0.802983,0.277179,-0.599703,-0.533158,-0.538009,0.371238,0.786102
N,-0.4149,0.175383,-0.323091,-1.17352,0.115347,-0.420094,0.153201,-0.548432,-0.170885,-0.587254,1.59982,-0.157784,1.09843,0.475823,0.32769,0.207931,0.483684,-0.234889,0.710699,0.380882
D,-0.12612,-0.0187173,-0.300282,-1.16879,0.0364831,-0.209468,-0.162467,-0.735163,0.0718863,-0.255744,1.28353,-0.268123,1.1311,0.619376,0.019171,-0.162145,0.769505,-0.077511,0.694696,0.603261
C,0.181336,0.9183,-0.0464775,-0.655314,0.691227,-0.296061,-0.9019,-0.820823,-0.0342366,0.545318,1.37233,0.373159,0.753048,-0.289812,0.161175,-0.925924,0.631416,0.265446,0.56765,0.0918836
Q,-1.05639,0.21954,-0.382671,-0.84654,0.413784,-0.0838629,-0.329801,-1.15341,-0.262732,0.323608,0.693149,-0.983674,0.598573,0.760345,0.452507,-0.428682,-0.402537,-0.929025,0.899081,1.07831
E,-0.0625207,-0.0969793,-0.359408,-1.34302,-0.194123,-0.5619,-0.156644,-0.74268,-0.391683,0.0432232,0.485267,-0.668484,1.03876,0.457014,0.458528,-0.677693,0.321297,-0.307958,0.580536,0.852581
G,0.338823,0.379774,-0.103823,-1.0321,0.845858,-0.0636992,-0.586791,-0.899076,1.14877,0.4782,1.27198,-0.932795,0.332825,0.00885727,-0.145158,-0.314852,0.194371,-0.725464,0.770578,0.68019
H,-0.644126,-0.140218,-0.339047,-0.678038,2.21636,-1.15658,-0.141898,-0.00980559,-0.270079,0.282593,1.43554,-0.302538,0.689223,-0.376365,0.778621,-0.43014,0.517244,0.648449,0.591288,0.863328
I,-0.163616,0.148349,-0.0856,-1.25285,0.183871,-0.465163,-0.373716,-0.916955,-0.555143,0.0783231,1.08599,0.0216799,1.38255,-0.36864,0.0877712,-0.109246,-0.108332,-0.472727,0.278928,0.462344
L,-0.124546,0.0171256,-0.370082,-1.2643,0.358673,-0.217614,-0.609231,-0.896991,-0.309621,0.160593,0.86757,-0.110287,0.813124,-0.12095,0.474272,-0.570804,-0.300229,-0.4305,0.441,0.598799
K,0.0762916,0.517148,-0.609918,-1.03092,0.264444,-0.690776,-0.228853,-0.652066,-0.282143,-0.847174,1.09871,-0.245848,1.29648,0.506504,0.0645071,-0.273659,0.0711719,-0.778989,0.52089,0.664081
M,-0.0382027,-0.632664,-0.675002,-0.630485,0.498763,-0.53583,-0.125657,-1.42876,-0.084172,-0.167306,1.33171,0.158282,0.679014,-0.640025,0.723294,-0.503526,-0.234643,-0.155154,0.424049,0.54782
F,-0.167101,0.283744,-0.00360006,-1.37698,0.416908,-0.0667283,-0.560618,-0.920911,-0.159564,0.389744,0.766632,0.0686571,0.966108,-0.515444,0.163393,0.13369,-0.0889525,-0.333833,0.725313,0.37901
P,-0.0150878,0.365917,-0.414438,-0.637786,0.68529,0.297891,-0.592351,-1.12865,0.590875,0.844875,1.36752,-0.6651,0.342384,0.432719,0.38554,-0.215033,-0.857793,-1.07221,1.20417,0.557703
S,-0.000358098,0.288639,-0.518919,-1.1805,0.768673,-0.404489,-0.501414,-0.957009,0.457773,0.0869754,1.40363,-0.289803,0.547875,-0.046882,0.0254749,0.0153663,-0.119442,-0.375999,0.640246,0.551876
T,0.0495478,0.384275,-0.743159,-1.04001,0.235472,-0.295187,-0.206317,-0.818514,0.117442,0.0693989,1.35854,-0.174203,0.963452,0.066005,0.339471,-0.213603,-0.169605,-0.5944,0.620533,0.653595
W,-0.424571,0.0940533,-0.000615701,-0.846613,0.472475,-0.452848,-0.385825,-1.51249,-0.31576,0.666187,0.480459,-0.612884,0.631124,-0.765282,-0.110919,-0.795041,-0.346205,-0.473508,0.594536,0.452751
Y,0.129432,0.418908,-0.255267,-1.00267,0.21604,-0.432362,-0.601211,-0.669742,-0.318503,0.319456,0.825267,-0.216242,1.10144,-0.635731,0.0182629,-0.122478,-0.0443288,-0.426957,0.509605,0.16084
V,0.178655,0.429974,-0.390832,-1.11441,0.343403,-0.196198,-0.401028,-0.920969,-0.0683565,0.241176,1.1016,-0.161543,0.966284,-0.297315,0.150296,-0.326991,-0.298842,-0.376048,0.351874,0.7868
